1--------------------------------------------------------------
0.19431219863838, 1.681439108641, 0.21020857774081, 0.73163857269286, -3.7389098330006, 1.8152630283563, -1.2834055940083, -2.4440932749839, -0.47029848846146, -2.3469921955151, -2.7009854049312, -0.91631962375291, 0.61195126510102, -4.2151264532894, -3.986607339976, -1.0019558675126, -3.1024533325806, 0.68378203768151, -2.8660265821095, -0.75690209665546, -0.71965094605885, 2.9842385569717, 4.8045273851415, 5.0180631086841, 0.5671776710394, 5.1976621880657, -10.549639383378, -8.6139959893269, -1.1080606045837, -8.211357990153, 2.4680487001094, -1.0671414440137, -0.11109469466204, -0.051978495980406, -1.0759801201949, 8.3661295884262, 13.252047192794, -0.76075933078581, 1.6733034362589, -1.7058165881457, 2.0085253575889, 0.71868043180741, 0.26290122091644, -2.1400222004185, 2.1363464735699, -1.522694869528, -8.2071673395735, -4.1309206579767, -1.754448135453, 1.2217727877793, -0.97194054043734, -0.04827568982442, -0.07764905977261, 0.67595935047537, -1.3882871022453, -0.48321908716204, -0.44613966452754, 2.7016227037623, 2.2677718498563, -1.3263151714813, -4.0287512922835, -1.9906096699194, -11.333142186247, 1.376403763802, 2.3430477756901, -9.2102118351891, -4.8011535872841, -2.0668033035237, -5.7312658773836, 2.2041262034502, 1.283320229331, -1.766853509198, 3.4411433712923, 7.7238373096283, 9.1297762127498, -4.7110993468673, -5.7337053016101, -4.0489058047409, -7.9196195175975, -4.1789291060732, 0.34094085272279, -1.086308463621, -5.6089565723859, -2.864749782912, -1.3265331484735, 3.5470429085848, -4.3275291295106, 7.3336155163115, 6.2214223154507, -1.2013798211149, -0.16028939925145, -7.7148142129897, -4.4170546912876, -5.3633071954187, -9.3221331845544, 4.8856052903781, -1.472066281259, -0.83096321818176, 4.5903201791421, -5.5645153651367, -3.8758501333816, 12.190133322292, -1.4869947569638, -2.7608468693285, -2.4068888925873, -1.0575429698584, -1.0610499513951, -5.515520513408, 1.713489967221, 1.4476725204149, -0.84747716926275, -2.4052816987528, -4.8194408091684, -1.4902678681868, 4.6500545404424, -1.9806792470777, -1.3002819448485, -9.4741750064306, -5.5247123348159, -3.5262351497271, -5.4673848733781, 1.6325907084292, 1.2798230347537, -2.0561208994447, 14.021858134778, -1.1466632559052, 0.71819542467834, 3.0471226934036, -0.67939672450451, -1.7378376635893, -5.8212698311258, -2.6490285719899, -3.492672304421, 1.7662907928382, -3.5522147515328, -3.3130314926265, 1.8113638103938, -4.2911522210418, 5.534998324023, 4.7292979707036, -2.4136999510196, -3.2596632113828, -3.3180787984702, -1.5353563217187, 4.7057374176231, 0.92445823044486, -0.86118053555668, -2.7035056457707, -2.3365513062836, -0.42314861297793, -8.2181800097123, -1.7261665990387, -7.5835533606751, -4.2869869198158, -2.0558955499979, 1.3025122646901, -1.7969350199036, 2.0387859289523e-05, 9.0437740290016e-06, -1.0946482675945e-05, -9.8396140241828e-06, -1.1170605547171e-05, -7.387399027863e-06, 3.8551102203367e-06, -5.1671050792088e-06, 1.461580987428e-05, 5.5209240220645e-06, -0.00011647072724269, -3.2009149479222e-05, -0.59954362729149, 3.0078654196539e-08, 1.0907277226394e-08, -1.3698391873019e-08, -2.0188804156929e-08, -2.4893516318257e-08, -9.8225504905045e-09, 6.0124311388456e-09, -7.4528922141114e-09, 1.9016562195769e-08, 6.5529990252959e-09, -2.3152953584172e-07, -4.0416706174105e-08, -1.4407496240839, -3.4191533464692e-06, -1.4231910024336e-06, 1.7482661130477e-06, 1.9486671985734e-06, 2.2159982424756e-06, 1.2107854374704e-06, -6.6242568208799e-07, 8.7807676806087e-07, -2.3824640326107e-06, -8.6661104574737e-07, 2.2459650471143e-05, 5.0403717807509e-06, 1.4407507038812, -7.732639708923e-06, -3.2176494001906e-06, 3.952522998467e-06, 4.4076665294669e-06, 5.014605472592e-06, 2.7372404276462e-06, -1.4978928447084e-06, 1.9849028289142e-06, -5.3855236325067e-06, -1.9589339485341e-06, 5.0815880417041e-05, 1.139771683186e-05, -0.51005684460841, 1.9071787005496, 1.3596730767295, -3.3996971839212, -4.4725559054204, -4.1435778893027, -4.6588649975006, 1.6147856374155, -3.1787616280548, 7.2595799397006, 2.7089392346786, -0.26851895794007, 1.7365411005981, 0.53514801492872, -1.1956117599263, -3.0108135091007, 3.1911391466276, -2.9322742622213, -4.1614164602913, -0.80921432577076, -0.70927295592115, -2.1536548021365, 1.5139335439247, 0.20018265000753, 4.3154852937357, 4.3562318367272

2-----------------------------------------------------------------
-4.1566634204897, 3.7733457202738, -2.6156234454792, 3.6062471033284, 3.4731370695133, 0.26651940029487, -0.41192889431047, -0.36985001279906, -0.14212447672734, 0.85356498482734, -14.537578640581, 1.8139505325791, 0.47603602039464, -3.5970392794634, -2.661932234466, 0.10892393096838, -1.389970458943, -2.9992286781347, -1.0397799013957, -3.084628092037, -1.4591911203709, -0.29688540791729, -0.096602539070068, -2.4477121302629, -0.2520026251347, -3.1048209497624, -10.465827830864, -5.7257740368915, -8.1938458196068, -1.6332752236138, 2.8822301341282, 0.0048677986464904, -2.8783244643771, 9.5338610601545, 16.724052442504, -4.1822193115934, 3.9796784817154, -3.6754066756456, -2.1993301241764, -1.6347051216081, 2.5679085753885, 2.6283355716732, 1.3061573831908, -5.0592400807369, 2.5858907218342, 0.70137806272566, -6.0205200532732, -10.896767336883, -3.0280057207078, 1.8363581569015, 0.13067036053114, -2.4493428515555, -6.3996374419464, -0.28256681561199, -1.5224489162051, -2.6804015543808, -5.8191169575361, -3.502900890789, -0.06603940115167, 11.044238812283, -4.5260029734373, 3.3866730511645, 2.7875719649085, -1.7769060030307, -5.2195291905589, -5.115185954048, 1.6848216381794, -0.86989058989576, -5.2697698653361, -1.2645916478906, 2.3329634237407, -2.3299060262729, 3.8349924903565, 1.6592799238226, -4.5857541420303, 3.169174589226, -2.556991719052, -1.8595893010677, -5.2205196300607, 2.5873935466689, 3.4077239232163, -2.4606725703293, -0.15828918742732, -0.53354151503804, 1.6325756288565, 1.0178894035847, 2.4681617648404, -6.3188773424107, 3.5035274256053, -3.2449157135854, 2.4570387013438, -4.0247338741982, 0.43127255146751, 1.4309648187173, -6.4917928518362, -2.1934142532338, 1.7332757215931, 2.1603306429571, 6.7466327626372, -9.5317218218758, -2.3666601787336, -0.92679637958727, -1.2862650170034, 1.9245128679096, -11.859612137964, -9.5231605187595, 0.45642224473797, -7.0851364151711, -0.37478317310492, 0.14295819180039, -3.0938164256502, -1.0624507160892, -3.0721584855568, 7.0637964841556, 15.775061659298, -3.8268572429672, 0.5835436479691, -10.673383270115, -4.116949856557, -1.812337086326, -0.73278882885822, -7.5056584143539, -2.8389283957948, -0.18550484681455, 7.7893804029636, -5.1598431495907, 6.3296053003756, 5.9529914374496, -4.3148235870247, 0.86056456902779, -1.4093015062657, -0.68137760144555, 2.2617478431543, -3.7185697129504, -6.2974862917605, -2.4347599346073, -2.2487736140326, 4.4051190661587, -3.2671839693165, -4.5966120649584, -1.4328363383112, 1.2306431081056, 1.901421994833, 5.5709643449362, 5.0999180376733, 0.49533705699302, 3.7194453033727, -0.10385418453829, 2.3247916301255, 3.333046910218, -2.5729226843226, -8.947769770398, -4.0454984649141, -7.3987007095779, 1.6444753445797, 3.3096898680967, 1.9249240047927, 0.0010750198384104, 0.3098687092058, 0.00015370743713426, 0.00029541649577697, -5.8034779419092e-05, 0.00035605587219209, -2.5009897499617e-05, 0.0011136045831313, 0.00020632607953151, 0.00059887217475903, -0.0011175810201483, -0.00013121821707214, 0.038607737814483, -0.0062824267346415, -2.0525069235278, -0.0010003297868432, -0.0023301496179976, -6.5261847704877e-05, -0.0011846975996689, -0.00015608392234007, -0.0059142911131812, -0.0013968036901651, -0.0041852089613116, 0.0060463852684457, 0.00051976254102934, -1.393209731805, -0.0079261716836316, -2.3676582887846, -0.0011758163022496, -0.0023725589926781, 0.00029778720707704, -0.0021964188004789, 7.9437154065223e-05, -0.0079924691413674, -0.0015839690093863, -0.0048651817076599, 0.0080789916452372, 0.00086364038120435, 1.3935222773182, 0.0064209421689815, 1.917345518779, 0.00095249353986922, 0.0019222983068601, -0.00024123838454825, 0.0017794486099734, -6.4974181544405e-05, 0.0064726603545647, 0.0012832484266746, 0.0039407461557376, -0.0065420181704784, -0.00069935441683706, -1.8430920689111, -3.7843600802343, 0.055241106331996, 1.2385737311463, -2.9344705033663, -0.74178976355667, -5.1383040928159, 3.8873115313199, 3.7698575054894, 0.92375584427582, 5.7418662846867, -3.7137439267391, 2.1514501079589, -2.5990148803828, -1.8104939527134, -1.2598592879554, 1.9496206926944, -2.0401772143561, 1.9744344175121, -3.5724296376155, 2.429600092384, -2.8729076356212, 3.02697978273, -3.9686764122187, 0.68163286635182, 2.6731658722122

3------------------------------------------------------------------
0.35151320753293, 2.088619336558, 0.25246410446284, 0.5839024746891, 1.5310122160691, 1.5731109823851, -1.1059774791439, -6.3677531514402, -2.5520690680685, -8.9612560003589, -0.091851629877513, -3.0321470152656, 1.3123356442571, -11.265802147701, -4.8941961429525, -0.7349155817408, -0.27501849907784, -5.0753553332759, -1.3606730390868, -0.93315200567513, 6.8198581379772, -2.6235796462084, 5.9037944872839, 6.3240162223096, -1.4491157241769, -3.5525507609513, 1.6032586993424, -3.3580192314186, -2.9177896471058, 2.2068826364498, 4.4586596335571, -2.8495184603494, -0.22488382908052, -7.003260727154, -3.366446482331, -10.966177027758, -16.00111881864, -0.84855785008401, -2.6382982215039, -1.4651429714896, 1.461116060303, -8.2092196735851, 1.6315548158234, 1.6719673091279, -0.59849658546855, 0.38137784986863, -6.4619856939938, -3.7743308437565, -6.6250396630465, 7.350316685015, -1.4481721311798, -1.5164405728068, -1.0333784361239, 3.5073985720205, 3.5331432200873, -1.7274437409352, -3.1656420517026, 0.84330964389696, 1.1140751432349, -6.2785462233135, -10.31130982777, -8.3519998946051, -1.7394948479316, 1.0799580371273, 0.18902863392899, -3.5366529701468, 3.8153416367964, -1.0392827428413, 3.045777514345, -3.936698306387, -0.99595591246449, -1.923467265942, -0.60866887650543, 0.91755363671094, -0.2344388072418, -7.174158072086, 4.4534549782086, 2.7627919572949, -5.5000345158716, -0.70294350890015, -5.1979942159909, -0.29853368561847, 0.80119588635398, -2.7845357800655, 2.2135718045927, 1.7512186448041, 9.9579292471003, 6.2493795476271, -4.3348996959011, -5.0711182297891, -4.6601122641637, -10.175414524957, -8.7745269021924, 0.34599357991014, -6.3641273743085, 0.6750708606434, 1.8212822612104, -4.0166382126027, 0.51115895712949, 4.724017971736, 7.4285048966726, 12.198812270588, -3.2374855269535, -7.9141777690714, -6.7314271065357, -1.9278317136611, -3.8335925407196, -1.6780941471274, 1.607422879195, -2.3939259227922, 0.52195477355093, 1.1145282326707, 9.862860484533, 8.3553255852395, -7.560188132843, -2.6534934576329, -6.6414099448962, -3.3406382194841, -4.1772947662517, -2.3431146169023, 1.9558041492824, -2.4178753658804, -2.2764411811087, 1.9984427644918, 1.8980832056608, -5.9426441929337, -4.8896124684297, 1.3760295332476, -0.031776060072544, 1.9903462122281, -4.6709197905252, -1.2386037407834, 1.8282782891607, 0.65611008214692, -1.5594326486887, -2.366840906221, -1.8452484463367, -2.7768758849873, -3.6494639412949, -2.3224455260832, -0.66181552867957, 2.486839300246, -2.7465189447399, -3.9612149084636, -0.53572905723164, -2.276503348678, -2.4326015902312, -0.67745642408259, 2.5274611883841, -0.91439164636297, -1.1594499008134, -1.5965297617018, -2.6631285644342, -0.45679182309683, -2.3721438322938, 0.34071723658499, 2.2646429553664, 0.0055199744366336, -0.0087677024250663, 0.0030101032799093, -0.001479768905798, 0.018607454264811, -0.0030287070696389, -0.0015034159844849, -0.0014349703572991, -0.0012296992234294, -0.000430747269113, -1.2217819463512, -2.0894051359591, -0.13059959946966, -0.0079408544351651, -0.01611157208606, -0.0046914996976432, -0.0030612219746449, 0.034239969941827, -0.0083334698052896, 0.0019430874013829, -0.00065030403089476, -0.0060448604950296, 0.007500477323016, -2.107630721043, 1.5832842677669, -1.5389800344147, -0.009497893943511, 0.0027302321882192, -0.0031416896103794, 0.00080170792658615, -0.003247467520568, -6.0771653895555e-05, 0.0022395201877823, 0.0011170499516852, -0.0011438412512674, 0.0038808027721691, 0.35986188605953, 2.5632078540486, 1.5399577841563, 0.003861896639787, -0.010561053887696, 0.00098635561971977, -0.0022671480667986, 0.021089243240292, -0.0046688291986923, -0.00065366621171123, -0.0013344393510758, -0.0025141248372416, 0.0017979266896075, -1.4480540913585, -1.4333656044185, -0.022357232968435, 4.8933452312962, 4.9730955768051, -4.7922041776458, -2.2847403127744, -6.039014482406, -2.7811461472321, 2.5804675490023, -0.74697440799464, -4.0514115525912, 0.60254611781737, -1.9451579988075, -0.19993194188939, -0.17462185697439, 2.780733531837, -4.1730589815097, -2.4288505849461, -1.7767605605247, -2.089051984496, -1.9492005258282, 3.5205736630846, 0.82152154917968, -4.5108794373848, 4.4331106733313, -0.25152299056561, 2.3727912145355

4-------------------------------------------------------------------
-9.9312605213691, -6.9982362820811, -0.28620484979469, 0.016780205670994, -3.2132906911578, -3.3014555180329, -0.56811439750801, 6.0687922920564, -5.9501498834128, 5.6282859168602, 5.2833345826885, -1.8927812036179, -0.59453770830895, -11.919814713685, -3.7637301140778, 0.41092166605474, -9.000336260481, 6.6995220890952, 0.44737534255565, -1.7402490021339, 7.2067485896994, -8.6008491167295, 5.6555738751528, 10.804985213015, -3.0207378608055, 0.64285238305535, -12.673549948098, -7.94765910189, 0.17045902062323, -8.8216677423822, 5.157061904475, 0.53932078356926, -2.5683109487249, 3.111420433133, -5.0092110889007, 8.8406806271574, 12.61821784101, -2.3691274474518, -2.4594246761506, -1.5706160763099, 2.2466966397952, -1.1532369448886, -2.8398080725722, -4.547044495425, 1.1473533641026, 0.26847950416123, -3.0978938892502, -10.831297825665, -1.6338114028048, -0.08168788700416, 8.7351203638789, 4.7734962193209, -1.6911753148327, 2.683046433224, -2.7040176165818, 0.043068660084335, 1.0251972998207, -1.5137372950534, -2.8058687568583, -4.1911260242913, -2.4587213459297, -3.1383266894576, 3.1072954983824, -0.24628361631621, 0.428254417081, -5.0072990952811, -1.4730709359966, -1.6694167331341, 0.33478063831908, -2.2435290743192, -1.3517430429007, -1.496662172988, -0.54010935479355, 1.1135433591711, 0.21377920598253, -0.94905303035116, 0.99781218246561, 0.83909671076637, -2.2012579819528, -4.112357060169, 1.5816130581914, -2.7915875531904, -2.2709313184593, -0.77657413016247, 0.043186061473558, 1.2482197880146, 10.578453123829, -9.5143886515909, 3.1340070917086, -0.71143504737918, -3.9336343454585, -7.2412452646934, -0.93156637157108, -4.116670445282, -2.3471937257275, 2.8940201747206, -1.4956501008851, -3.4726651388953, 6.5206745752595, 0.62073138056337, 3.9078383750538, -3.0112333962604, -1.6037246304846, -0.48770212603011, -4.8520691105568, -1.9202130773919, 3.5262765647092, -2.460857538348, 0.60911673843373, 1.7382680797646, 1.7515384597462, -4.5192757845178, 5.7707778330168, -3.3172281148396, -0.7248798038592, -3.3881276394139, 0.50750047290576, -6.278409191993, -3.933415731704, 5.3543630377652, -5.634454500053, -0.4465565703843, 1.7946686576105, -3.0351424762202, -11.961505179177, 9.8782233489458, 2.3395987985282, -2.6393914413968, -0.51945780049728, -1.2769737807808, -7.7827900829171, -2.7399177552591, -7.467385545674, -3.3381408905779, 0.88616978758412, 0.067526887849748, -2.7891730709928, 3.7374529363228, 8.7875969127447, 8.7837501047051, -4.3270736444392, -6.9074931481317, -3.2526123191367, -4.3057714736024, 1.4099572940106, -7.7471638473308, 0.80994588417637, -1.7835122142112, -0.54112992918544, -0.97613848876403, -7.6179750029659, -1.0630082127042, -4.9467406896319, 10.623478043993, 1.1115713719613, -1.523675075622, 9.1976013131201, -0.4556287591403, 3.0862170101085, 2.5427005354591, 6.2140413807128, -0.89504070385752, 0.82382742778809, 0.53625498660754, -0.35519131645041, 3.2273755029363, 2.600571284496, 1.1518459704037, -0.37853216566278, -0.78032473597781, 0.0008514264636916, 0.0071454712402509, -0.0035702276190957, 0.0024846591712225, 0.010363907572631, 2.5868508512228, -0.0038604839922361, 0.0021178606265777, 0.012663366295925, -0.0042317353492847, 0.0038334854685844, -0.0041431052853881, -1.6320692847972, 0.00043052207863826, 0.0036696041819724, -0.0017009178259639, 0.0022693103742647, 0.0048858804924372, 1.2977694841703, -0.001663143085945, 0.001171244543713, 0.0052294396322068, -0.0011604719669897, 0.0015197336902405, -0.0021720878554084, 1.6275225685932, 0.00020381448319898, 0.0016014950782338, -0.00075278607883452, 0.0010157832884938, 0.0020170408014711, 0.55311434072238, -0.00077516638610683, 0.00039050648138035, 0.002972875469673, -0.001065803747106, 0.00076266545515494, -0.0008999138216423, -0.48770316557861, 5.8829195623032, -0.95316461120967, -0.013773124397446, -4.3271482357733, 4.4122583805129, -1.5632967904256, 1.2363097264579, 4.2030356813664, -5.5806302812141, 4.4865723445096, -5.0564999738795, -2.031742553606, -0.30375032769568, 0.26309460844771, -2.8456682816722, 2.896771127637, -3.1413407224097, 2.6944103809834, -1.9299933736509, 1.337320692944, 3.9087981130928, -1.3124176178161, -0.50802207995515, -4.3376546680604, -1.4280833288523

5----------------------------------------------------------------------
-5.6570592999878, -3.3689720220849, -2.9840537206623, -3.2121583994366, 0.53832341629169, -0.49947563320531, -2.8273532433484, 2.474274114097, -3.7646166730698, 7.7565977497182, -1.6786290436515, -2.0926805198189, -2.8193089577956, -4.7593141325196, -4.2222145955139, -1.8563937193287, -5.0942403983583, 1.0168427061262, -0.85661837254133, -2.9965942575358, 9.4920806809239, -2.8460836843224, 2.6982835847386, -7.0801204558483, -3.3885312355732, -0.47999287965817, -10.622307009366, -5.6134757321344, -2.2528339483457, -1.492380472674, -7.5781996104743, -0.10776121998698, -1.8983708562334, 8.4339131283907, -4.3570786791206, 5.8009101822402, 6.2988180919419, -1.8977930078435, -1.6698639036179, -7.7808481405615, -6.8270016037669, -1.4677031721515, -0.72561846153791, -1.655532443588, -0.60456961750479, -3.2752033399138, 1.3271120817718, -0.83459196957745, 0.61872670291961, 9.420322171611, 0.93362020103346, -1.4092863542871, -3.1241762077002, 0.10436994026998, 0.16923951921054, -4.9976233891981, 1.2280487611133, 2.2307934290229, 1.3854278894361, 3.3992511811055, -7.8604049722618, 0.38109890081791, -0.10390491681148, 0.19811212308439, 1.7289398304768, -1.3049596776019, -1.7066117672232, -0.18101439085438, -6.8248384147487, -1.6776841378022, 1.011863206675, 0.86387964719881, -7.5560791278227, 2.5612374982335, 3.2155891801763, -6.4638736446749, 2.1560369189599, 0.24313663972435, -3.6282326692848, -0.77612294935989, -3.4719181210067, -0.11705740183672, -3.2246475335134, 2.0523881473916, -1.2315383271368, -5.0618956202479, 0.76741923052172, 1.0794431298739, 4.2797737507766, 1.6028160542763, 3.2492189495621, -9.1708678229619, -0.1277593767423, -5.2723617740771, -0.36819343092116, -1.8391057781541, -1.4042206401774, 1.8280560720094, 1.285391540979, 12.445096771692, 1.4241836839453, -3.7875488779735, -2.7473666701812, -1.0920158445922, -1.0828972249177, 0.78102427471798, -0.025876901952421, -1.0990979617166, 0.65936971247978, -1.9344232634751, -1.8431334274506, -1.6615641937822, -0.36702619832743, -2.5571895097304, 0.56206927593122, -2.8308503186603, 2.2329791373598, -3.999504649354, 3.9387918524853, -3.1437962735521, -1.5450994312325, 0.17484082217949, 0.7461274045461, 2.3720468591029, -2.0274493690846, -6.8752351735073, 1.9535313977071, -4.0483725831925, -1.1611507629436, 1.6054231508088, -11.590745540937, 1.7287692078032, -4.7738879557165, 2.3049557172424, -4.3208333810238, -1.7348086830251, -0.41796134407072, 1.4073706808109, 16.230932329397, -7.5236277413303, 0.67333496417152, -4.0308215836038, -0.72604250418494, -4.1204575483782, 0.60080980472896, -5.0379699122793, -1.8280002656024, -1.4273001554463, -1.3809315820275, -3.1979347165803, 1.3050922576843, -3.4280107804452, 7.1232139414413, -1.2968123286924, 2.1655481114576, 0.3442707036115, 1.9824796751626, 5.8530491797473e-08, -9.7586546236392e-09, -6.4561763435973e-08, 2.1125110061925e-08, -2.304765553431e-09, -3.3623926181736e-08, 9.8464939926419e-09, 1.8805556268393e-08, -4.326287798837e-08, 9.0991828669663e-08, -1.4172151423591e-08, -3.7102437727727e-08, 0.065635807649475, 5.4204869838426e-13, -5.0554677644796e-13, 3.0043516539937e-12, -1.8978267385588e-12, 5.2558517752897e-13, -1.8494170496729e-14, 7.3658881408877e-13, 3.349668301084e-13, -3.1853728043684e-13, 6.5512740888349e-13, -2.1195759184941e-13, -5.0373848073418e-13, -1.3260451515387, -1.4596672981706e-10, 1.4832119433003e-10, -9.2976134970779e-10, 5.8082228277405e-10, -1.5867222252125e-10, -5.6036203103138e-12, -2.1763309168166e-10, -8.7957867762329e-11, 7.3393067011542e-11, -1.6305089803906e-10, 5.3573839995842e-11, 1.3847286869264e-10, 1.3260451515344, -1.0668985718993e-10, 1.0891650230758e-10, -6.8419085186909e-10, 4.2719266011914e-10, -1.1665041635462e-10, -4.4714997009745e-12, -1.5987520763306e-10, -6.4336811589512e-11, 5.3535245894141e-11, -1.189022680394e-10, 3.9144350275914e-11, 1.0141414286733e-10, -0.50915935511722, -3.9610310899404, 2.1278256184902, 4.2356433960004, 0.23011283599005, -0.63774886984402, 2.4586757999646, -0.39798960932857, -4.300149848131, 2.5968757530664, -2.4111742742436, 3.4581802832775, 0.52392226910795, -0.055975400345516, -3.4269847154203, 1.582770194643, -4.824296674704, 4.4870165152233, -2.0017648256061, -1.4095643257271, -3.3242125739295, -3.7246326004165, 0.98245444238913, -3.630641049005, 3.376460561496, 2.0679811307672

6-----------------------------------------------------------------------
-4.2815761664106, 1.9599512995981, -4.2861625052357, -3.1324084349202, -4.6157162905801, 0.97908354113058, -1.0827424067342, 1.9548846096665, 1.5972152062213, 3.9286554138537, -1.9773980889948, -3.1943187656188, -3.8956398378906, -2.7934363969991, -2.3765446957159, -1.3521444807392, -2.8371800000147, -0.10542676331628, 1.3258067444324, 1.5386497752227, 4.6718557857942, -1.9670104326543, -3.7606404591691, -2.6817682930739, -1.9929851213478, -1.8230022343954, 0.014807689581914, 6.1637590561212, -0.96345069953188, -1.7915601695972, -2.34848431348, -1.2561602426848, 1.033210158281, 0.65042516107872, -8.3903638981319, -0.8252369741606, -2.1976578777494, 3.1540129160535, 2.0161273124012, -9.9145020503479, -7.6894612679327, 0.77930704559247, -6.7733364398081, 3.7959403261133, 0.3298557650777, 1.3288874396597, -0.19549055390001, -5.5543210941726, 8.8386500563312, 11.798329079256, -5.4876259916317, -3.1148154432865, -6.6482106600752, -1.3848893723917, -7.7148584842184, -3.3525135085652, -1.3277682989051, 1.9084901521803, -3.4097159975869, 0.52657176364883, 9.2724281506816, 9.3115292742342, -3.1255562172301, -5.3200985491919, -7.5212721397818, -6.3464682397073, -1.9416042709961, -3.1473983327458, 4.2042295399865, -5.2186086410058, -0.60097318412674, -0.76585030740292, -7.4927318821647, 10.260562634426, -2.4567317247499, -1.9313504070672, 0.51102649481823, -2.4844901997961, -4.2726616404269, -6.4879939784583, -0.43466815977808, -4.512079293084, 1.2761958414373, 1.8920475009802, 1.8960695181034, -0.42259309097794, -5.2446597807957, 5.4765633713779, 7.4626419122785, -5.528605298294, -0.48318105437179, -2.4129754869997, 4.7598671398063, 2.4781751525847, -5.0988695962984, -1.1247404428312, 0.61917513796351, -2.6624896168974, -6.1793347872213, 2.5535069458123, -6.4695802207678, 4.022303131077, -3.0469827437223, -0.15836159465517, -2.9398513458513, -0.41030863614583, -0.055102054498137, 1.6815613758825, -3.2457218938858, -0.13510566214927, 0.35686122080042, -6.656362600589, 5.2130913123105, -2.0655914498729, -1.0021026047165, 2.6364251893211, 2.7404933289375, -11.797971326735, -5.4339714734146, -1.093139617987, -0.43934207121297, -6.686789971919, 1.0197126472024, 1.4176652794349, 7.415156246517, -4.5638912815487, 6.2420896593391, 5.8385669382355, -1.6174877093471, -2.6163899980777, -2.8523429946094, 1.253082294091, -3.5503197029984, -3.5213228457305, 1.1686514578838, -1.3118097316789, -0.53558621801966, -3.6471239380623, -3.0113804681336, -2.2384267652793, 2.6693792471941, 1.9841925820911, -3.0897408335239, -1.2407389003512, 2.6747095949631, 2.4107479151791, -1.4226271469418, -3.0180893628703, -0.38403070352696, 1.2108943450455, -9.0943441920975, -7.9854345741698, -5.1993931463917, 1.1256759226635, 1.206598988648, -2.1080182881559, -11.072014598368, -4.2975126320963, 1.4799350011287, -5.4267178691744, 0.8037373057353, -5.5168112263157, -1.7153777456111, -1.2687824111677, -1.4830158447763, 0.15199524775759, -3.5638923593213, 1.3870452192814, -0.035810371676639, 0.20536208998214, 0.0015036708521514, -0.003191986490821, -0.00096772298318335, 0.0016992881469337, -0.0021821539136541, 0.006178643488237, -0.0017827078244793, 0.003469603668077, -0.0067019661119142, -0.0045703640731296, -0.0061637743837248, -0.0063653243988729, 0.82721452347875, 0.00052331783943416, -0.0016622580514547, -0.00041236838702896, 0.00076367958178087, -0.0006989666861405, 0.0026657381415579, -0.00082832188031874, 0.001471769579856, -0.0029093109740241, -0.0020153538120737, -0.0021721637529436, -0.0028158728999407, -0.82640791436373, 0.0011935523578213, -0.0038402341976332, -0.00094467611299891, 0.0018426918394819, -0.0016740359480613, 0.0061580637511218, -0.0019553879416001, 0.0033939178788429, -0.006716293049029, -0.0044343404635788, -0.0057620082156526, -0.0063227186683329, -0.30846242046031, 2.7546498544631, 3.1589965134732, -0.73586349371957, -2.5530565248274, -5.2669148427937, 1.911238135366, 1.8027309801299, 2.1103748879352, -1.1090119519352, 6.0892416988135, 2.9208966300152, -4.0797603230988, 0.35952728275092, 4.0099604600915, -0.0086249834264964, -1.5326453028441, 3.9896393373512, -4.2579678001993, 5.0511975078979, -4.0621609123901, 2.9024156717512, -4.8182896476553, -0.6832427514013, -3.4788850078335, -3.4298946675197

7-------------------------------------------------------------------------
-7.4315296517252, 0.22173549451421, 1.371592589263, -0.76358849874751, -4.6710470249509, -1.0703101330892, -0.51150467737534, 1.6591439271652, -0.29267791957115, -1.588926293835, 6.5428863292437, 2.2513968388391, 2.1347965972727, -6.1741854417487, -1.5943543265371, 0.26160793294265, -3.555383195016, -0.080333778710451, -3.1424891645149, -3.3766383757103, 2.8590022433258, 11.746721521716, 6.6140468217673, 4.9117126930743, -8.1204583770865, -7.0281673790728, -0.75361879096164, -0.77400270977188, 0.56154174386504, -2.0773751806898, -1.3052759944339, -2.2803232683552, 0.26613344699141, -8.2755650889139, 3.3723472769091, -0.80728413151162, 1.926619637754, -1.7311467168279, -0.75142251313536, -8.462525125247, -4.0390568329557, -4.949799672633, -3.2629745341873, 0.70613158563131, 0.52175273184772, 0.078212330815759, 3.7406839259528, 11.053250843384, 9.9207222722536, -7.3048138345995, -2.6413944569317, -6.3584961145629, -2.0235163948983, 0.69121583333171, 2.0431668299338, 0.23141604268144, -3.9258308203043, -2.4650397153167, -2.3622739837553, -4.9064149854314, -4.5149695060392, -3.4252124371155, 3.5879529514202, 5.2538178622529, 5.5044221519534, -8.7763985066584, -4.6091339474743, -8.1679113347065, -4.9536491937772, -0.63648884719669, -3.3791395148912, -1.6559401307331, 11.063524528673, 10.528995671749, 4.7106024880771, -1.7077819516209, -1.319834398617, 1.4280731704319, -4.905345595655, 3.3461784148495, -3.1689848881572, 2.9813216637874, -2.7171789168082, -0.61237574744391, -1.7257260369049, -7.6375933445503, -2.0497316175664, -0.053630289365185, 3.159354717284, -1.5660264393291, -0.67814657367162, -12.37058663172, -3.104122888168, 0.45533124561834, 0.21434673973223, -6.3907422781775, -0.11406430246113, 1.9954298863904, 1.0548453703202, -1.0595046795445, 14.0620182316, -2.8662014308431, -2.8716054786659, -1.5690824154948, -4.984116372121, -2.0329750528191, -1.6070159156098, 0.3668857743498, -2.6638773225798, -0.92780116154592, -2.363972142549, 0.30577128084174, -1.1165116516409, 6.5834399358762, -6.3180223434628, -0.065264603787474, 0.20004377366906, -9.6881801445561, 0.28259937866027, -0.65524322369469, -6.463466095859, -2.7455760346409, -1.7666883869232, -0.46348778099095, 9.1964779029949, 1.1392417281853, -4.8040674458742, 2.8276020517419, -3.0019521925417, 0.25089894593328, -1.1475540546023, 4.1857319757193, -6.2447946193074, -0.34442102321429, -1.2565099215765, -2.5595844506707, -1.521987234453, -14.365211183383, 8.1574444014711, -8.3474094594239, -1.7765290716736, 0.14371580877596, -1.6833081173345, -1.5755690515432, 0.11240321058937, -2.266550739264, -0.80974043789901, -5.2523562976095, -0.061752478430323, -1.4374369499405, -1.7215739050674, -3.1807062864856, -0.33459687382317, -7.6987048249727, 9.8158250264546, 9.5951025177351, 2.1986587140224, -0.00069821768673964, 0.00027250095419229, -0.00028173325099409, -0.00013118402406925, 0.00040446097929292, -0.00020472819006384, -0.00039730865324799, -0.0026174083787816, 0.0032263334712797, 0.0014188048796109, 3.4071525429665e-05, 0.00051649491078222, -0.17554663441999, 3.9180940182967e-08, -3.4468035816608e-09, 1.5640802111994e-09, -2.6787477683996e-09, -1.2986160996653e-08, 6.3924431721185e-09, 6.4233002353441e-09, 8.3482394177392e-09, -1.3161854745695e-08, -9.7128142244698e-08, 1.0231032645061e-09, -3.6844075541174e-08, -1.6741472413678, -2.9087708749951e-05, 1.0643133919285e-05, -1.0967819185381e-05, -4.8907522316663e-06, 1.6356276413205e-05, -8.2139595818599e-06, -1.5831326175887e-05, -0.00010062984112628, 0.00012419518728479, 6.012255997015e-05, 1.2081106389394e-06, 2.1961749974306e-05, 1.6741445688751, -5.6826948038952e-05, -3.4822080697171e-06, 7.8450888373315e-06, 1.2284023541818e-05, 1.0577008893266e-05, -6.1294074374497e-06, 3.3018097485077e-06, 8.2653072959863e-05, -9.7703087129831e-05, 0.00015193993662468, -3.5345488340108e-06, 5.9539251312264e-05, -0.12326928274605, 3.788014104887, -1.3756307015483, 2.4030156698309, -2.872757840203, -2.1243194962437, 2.9134564727305, 1.1351735230971, 5.6899078588279, -3.9652514093358, -5.2621504982656, 0.64865200582701, -5.1395318840212, -0.15143561418416, 0.64073899158578, 0.57690232915516, -1.2332560253784, -3.5736596802469, 0.87828250651045, 1.9608725365351, -3.3403760385378, -3.2143935798377, 4.1224280011536, -4.054116446611, 1.2760845506354, -3.9918963156238

8----------------------------------------------------------------------------
-9.7289167253088, 0.19129496315777, -3.4854083124462, 0.95429938937785, -6.0692050509575, 1.1099900325515, 0.46221810099654, 1.5718337403686, 15.726321935784, 10.654902423595, -7.2879288058017, -6.8765442586999, -6.1099088711381, -5.0759754836054, 1.8064425442379, -2.8102505809357, -2.993557987032, 1.1480227246153, -1.5501222251968, -1.2580407498029, -2.8239592496787, -3.5189230998946, 5.2034671031447, -3.5912395183239, -2.9377911955413, -0.88488648161773, -4.1504593998892, -5.8742094579524, 1.3791135066605, -5.7472718086452, 0.57769370760949, 2.4801342426336, 2.2099657443493, 1.8303097067501, 7.5066792070391, -4.8213091960755, -3.0645234822923, 2.1674129537075, 2.9691620084234, -2.7303068910249, -3.0106747897368, 5.0691316477173, 0.48432076157915, -2.378775756276, -2.8837774976906, 2.850655277713, -6.7245635749477, -6.584887017551, -2.727158632279, 3.2557911062875, 0.32483853465949, -2.4949271629558, -7.3106875618853, -3.7014454216453, -4.1627323112619, -0.58544439689922, -1.9318770405898, 0.047180334757845, 1.4418170269552, 3.2372420095019, -1.8860702335418, 8.724508173007, -4.5275388351207, -0.24073912013382, -1.1523626459916, -3.973814186477, -3.5154727353708, -2.8248740149574, 1.4610513275418, -0.33189037750798, -3.2030468344086, -0.21062426905995, 2.3077849058491, -4.0414827210072, 0.05943780973187, 0.4014233299416, 0.9420435634721, -1.4222628651672, -10.769158430218, -8.2892841001833, -0.50700727738213, -6.3633815607767, 2.7223972629125, -1.7951789819542, -2.400325052247, -2.864852669671, -2.2341195924737, 9.743947234508, 12.875807082717, -4.2479470935722, -4.3235331126913, -2.1199575716841, -2.1191313527998, 1.8567087406829, -4.2229663686306, 0.35391726527003, -2.348546091747, 2.1972886323672, -3.9799540112383, 3.2033591143709, 0.10775895847293, 3.1806071123383, -3.0862885844929, -1.5504465041087, -6.4571542765902, 0.54177316852795, -0.99144160276398, 2.6829612368537, -1.8203858733943, -0.90397031359246, -0.54365366993332, -5.8982825346079, 0.90500625866481, 2.4591364642905, 4.4245997516474, 2.5515017480188, 0.15794691132396, -5.3893107886384, -3.7747811870156, -1.8456287598431, -3.6588529455186, -2.5412947161074, 1.4416192230868, 2.058303209412, 1.5266553074759, 10.511014754344, 1.0040566176276, -3.6581267496765, -3.058755652694, 1.734260795361, -8.1473215788716, -8.7604999381412, -0.69700478373185, -6.9289893013707, 2.5406100910841, -0.83655092394177, -0.69137901521246, 10.441469360049, 6.2313740670172, -1.3925666929349, -5.9702684022457, 2.4549832349112, 1.7057741565336, -9.7694877863459, -5.5931831716085, -2.348490122106, -0.68659746327163, -6.9893868428498, -1.1021656581557, -2.8318045539811, 7.0687380535082, -5.3282676046083, 7.4216121818961, 5.3370687093093, -3.6462465782987, -1.8503754314392, -1.87523657758, -0.012725240598826, -0.067705258167531, -0.0065729125341919, 0.0034142657818752, 0.021078150188676, -0.46174349561421, 0.0021782906735864, -0.017783014665673, -0.0096449775971895, 0.014384907213411, -0.006135646949566, 0.084655113607883, 0.031039983511279, 0.0019526720590643, 0.0094062206097614, 0.0011062949948595, -0.00089046149756251, -0.0020610287635552, 0.073903563069781, -0.00014308133155723, 0.0027176325945882, 0.0019545908624739, -0.0022431288458702, 0.00097402224994406, -0.015613254404009, -1.4056457505911, -0.0055370893514886, -0.028424674984323, -0.0030032135341157, 0.0018181267266829, 0.0076454998719257, -0.20449762977755, 0.00069224829803488, -0.0076937454124724, -0.0046756331049594, 0.0062891327557056, -0.0026443482898271, 0.040330434282045, 1.404752956928, 0.0066916297012759, 0.034502483866818, 0.0036153319122569, -0.0022097472166558, -0.0093194093337943, 0.24744945694313, -0.0008495561961387, 0.0093239538349908, 0.0056436261920097, -0.0075976111961434, 0.0032116965599306, -0.048663243112097, -0.43547435880684, 2.3389162824893, -3.4938645274963, -1.0408548035917, -2.8010980357437, -5.4239434179624, 0.60580688966543, -2.6137641726137, 4.3197431947235, 0.7337291017486, -3.5500180383243, 2.3388432682552, 6.6974585690305, -0.30221143841337, 2.9618917597192, -4.1888683058116, 2.5106319718259, 1.2253412055648, -1.7773118464383, 5.8818680906493, 1.228210866208, -1.2642053549882, -1.2560260086719, -3.8699003419461, -0.18065573466856, -2.1801175951906

9----------------------------------------------------------------------------
-9.2683820750993, -5.2804188425226, 0.093005051432333, -3.6360000489406, -5.5104289199407, -1.5306531822649, -1.3737824165803, 2.5373310720127, -3.3327886542276, 11.638463509154, -2.0640221494935, -0.2220673470661, 1.4209581637121, -6.3628347604132, -7.4004335209811, -2.7720362525311, -1.6398183278482, -4.3839043560064, -3.0322671109752, -1.604647235833, 5.5062021655434, -4.3602357994287, -2.2704131716354, 4.9612552140507, 0.84136323055064, -0.37010505868841, -1.6428860378218, -2.3293761662048, 5.3041564847081, -2.6756810723469, -1.8023263601032, -2.8846308611312, -0.34810301021616, -5.9136790639202, -6.1857388036262, -11.33747767809, -1.1036182953363, -0.075912494051053, 0.022494519336545, -5.3546317683448, 3.4968740249197, -0.31806724703952, 1.9358724740198, -1.7190590947387, -1.5786170272629, -2.8002410650826, -5.1281424130562, -5.1456108455609, -0.73410374738567, 1.0970931470132, 8.6144008715808, 9.3295897579528, -3.7174955941839, -3.6088941696543, -2.6456826154168, -4.2254834443886, 2.4288892896862, 1.0538348455556, -3.5486131525035, -4.8730845801254, 0.90058362582641, 4.9318052655948, 6.7116933824287, -0.94333978516922, -2.1014608202114, -9.2304923028266, -6.0996960668933, -0.31557797543468, -6.7942232229664, 4.1268959544329, -3.2045784179646, -3.5617760353116, -2.860074885198, -3.3904621092733, 9.2007124492069, 10.425812648925, -2.0816693736701, -1.4243213747821, -6.8522097444824, -4.8007001119951, -3.4818821896456, -3.2786883531417, 1.004333802025, -0.63469690826896, -2.299924759012, 2.6311508962107, -1.8726888460814, 9.46867732734, -2.5695104965361, -2.3295574974935, -0.91994535342504, -0.46408278567369, 0.49068193480154, 1.5447999672309, -2.2552617470678, -2.1897142708033, 1.3746913321157, -2.0249416803167, -4.6726203637799, 4.102762837239, -6.9341004985807, 0.56105656889883, 1.6315913674213, -0.073974244273445, -11.194945596, -3.6375383890955, -8.767281374126, -1.8295782262504, 2.0313685074234, 0.80615599232709, -4.1143344760225, 2.9718617671313, 20.452197160411, 11.858802038491, -3.0727534742935, -1.2647700340709, 2.2862549297994, -5.6539125543591, -4.9864724717864, -1.156177766994, -4.8643340819996, 2.2328099587132, -1.6622667696177, -3.5771406601567, 9.3364899252261, -1.9293897546336, 0.73237410686428, -7.1314560452948, -2.3717509960341, 1.6611738162683, -2.2110015663079, -0.62221281045813, -1.126690930287, -1.1494173706072, 0.53653052093239, 2.2902254369466, -2.0693243892319, -0.51400255598944, 5.859889254038, 0.27536304474838, -6.4990412278391, -3.2859083538743, -6.0417057692667, -7.477371890513, -1.8167540979618, 1.1993031142451, -3.0745051419812, -0.93394515237453, 2.2664849114721, 0.22395109002596, 3.3767944938431, 1.6771759397395, 5.0759150997885, -3.9430241492936, 2.2371043033795, -2.2782482160894, 2.223503687211, -0.048467318022774, 0.0014127631838662, 0.00060449133351651, -0.0028537153572932, 0.0010359566789297, -7.7291845463823e-05, -0.0059421226248009, -0.00071402601304563, -0.00068430443585662, -0.0036703799797342, 0.00060626254400429, 0.064583400993996, 0.01455962076559, 2.2498783650163e-05, 5.4833181041697e-07, -2.0015155817129e-07, 1.4585343780547e-06, -1.9957452008041e-07, -2.254581533159e-07, 3.0676908032203e-06, 2.9254618341636e-07, 2.3586679167568e-07, 1.7844175233633e-06, -6.9692594459428e-08, -3.0322975084527e-05, -1.7303612376432, 0.0057226951855838, -3.4845825759951e-05, -5.374201098625e-05, 0.00035226948308578, -0.00010537137099349, -6.2247737203316e-06, 0.00072764608348155, 7.9652779325579e-05, 7.0938119981773e-05, 0.0004362594801428, -4.742468533861e-05, -0.0076399818390687, 1.7303618342804, -0.0060173791765323, 3.8017227007661e-05, 5.6477057452513e-05, -0.00037042147177364, 0.0001108533814557, 6.4975659931334e-06, -0.00076515104780495, -8.3722153204829e-05, -7.4565394029663e-05, -0.00045870006855989, 4.982318303256e-05, 0.0080334406509595, -0.4200747043507, 5.4288157877667, 4.9054684664037, -4.7771969046244, -3.0114857091566, 2.5056499976868, -2.9435278094039, -5.1594276406638, 2.7566218802215, 2.7726765088568, 2.0739355561975, -6.2142040378993, -4.0455002157036, -0.074782838562758, -2.1566887015164, 0.7147390029203, -1.9585768158928, -3.4941662829278, -0.82561775970182, 1.1416617677712, -5.0414546516637, 1.5559503067935, 2.6241369072777, 0.39560672471641, -4.7945734620094, 3.3867691924678

10--------------------------------------------------------------------------
-2.6121017045654, -1.044810852787, -0.26140716305854, -0.89993352998281, -0.12863343138467, -1.9778236090035, -0.21063431501209, -7.3160432172497, -4.3237521515892, 2.3286818906522, 3.0520841820525, -2.0723071980779, 1.6511016153817, -1.4329413199647, -2.2220797830272, 2.4295243688582, -2.7066696241271, -2.1888217571922, -2.5135218962036, -1.8268833199052, -7.5983002519958, 5.7508270692389, 1.9784689607944, -5.7039125246113, -1.4587649924561, -2.625857790346, -4.9368508508708, -3.0382496616445, 1.3817416941007, -0.40970347660979, 2.7536333870184, -1.8653713338812, -1.8500715386786, 3.3731109385484, -3.2879487842465, -1.8994748963611, -1.0707883256128, 0.33909669869764, -0.13264132986208, -9.5208316759513, -2.0742037519941, -6.6234151449226, -7.2718330590933, 5.95461690291, 1.3671733862128, -3.7384487670999, 5.2885607710519, -4.8252392136359, -6.2210910082678, 10.935909568517, -2.2074166027773, -2.8896128765634, -8.6277729246103, -6.8543440923527, -1.0616447897635, -6.2736792026687, -1.2907904714411, -1.3742686486045, -1.4940534154684, -1.4192448942107, -3.0461522545424, 6.5232356261555, 12.078265841814, -3.266413988665, 0.44964368616197, 0.32214357738704, 5.6510611233381, -2.9603272042994, -8.7913392838685, 1.4221009448659, -0.56928007091712, -2.6141473052425, -10.905563461015, -4.0931816727024, -11.047390591572, 7.0848414311705, -0.22821594139121, -0.8219119156451, -4.5709130970009, -0.8347093434826, -1.9910939948515, -1.445842735333, -1.4005897484852, -3.0122084774445, 1.5858122943524, -3.2382075069828, -1.5998214436697, -0.39113171815793, -1.1387878604209, 0.94536485303185, 0.79786900297378, -5.5888099686681, -2.0667007880341, -3.3385528327725, -2.2906881612239, 1.0901174543324, 1.3013102353601, -1.7767144998848, 0.69974281207101, 10.084827724408, 6.0342930892864, -5.2119929554648, -6.7340000331494, -4.5930542222592, -5.2869203025856, -0.57399013256905, -1.9369018714929, 0.44157516107284, -2.5643232458911, -0.98970485225743, -2.5029601483059, 2.4879999571932, -3.5842198411365, 5.8951886087293, -3.9722031507145, -1.6442541269286, -0.74296058706675, -2.5145440245928, 3.2455416851279, 0.40614359206808, -2.2722075098518, -5.0469005165568, 0.84848740804055, -1.2464757458279, -3.6745957532796, -10.477470561214, -1.9888100080191, 0.016035606706099, 6.8243244669317, 7.3430044920653, -10.139232575538, -3.364951003887, -1.837083468976, -1.5009878489658, -7.1712347323469, -3.6043058613381, -1.8997823381375, 7.5093488181385, -4.2292453678343, 6.8696443031444, 5.4369016540004, -3.9070851488062, 0.6254469585268, -7.3608432585882, -3.6980896534451, -8.3142497361523, -2.2705630895694, 1.3259562622266, -0.11181519395049, -1.1818031071111, 3.6028404651008, 16.823718814969, -8.0559156128429, 8.8734969813566, -8.8872044986275, -5.1303021672551, 8.9649691773245, 0.89537549687577, 0.94632543135803, 0.33665631564616, 0.94663650056723, -0.93551160714088, 1.0436051019504, -2.3053348459354, 1.1190716706083, -2.0932818697653, 1.2317546208179, 3.7433609591711, 3.6594226453156, -0.7544799712699, 0.00090263186799094, -9.4118398178382e-06, -0.00092913352161821, -3.7755686184305e-05, -0.00063632241740942, 7.4682284199798e-05, -0.69576906002532, -4.6234681178829e-05, 1.045645903529e-05, 0.00093530328247558, -0.00096420017875179, -0.00016138181719852, -1.5117233577457, 0.00078410174932889, -1.596850969182e-05, -0.00081591591706582, -2.0703705257138e-05, -0.00055510827342031, 6.9423803991966e-05, -0.60487030473923, -2.0900700715689e-05, 2.1854849161373e-05, 0.00085718004137826, -0.00086974620210911, -0.00014555108579496, 1.5132478871896, 0.003553232605899, -7.2601997843719e-05, -0.0036985978795491, -9.3988293747279e-05, -0.0025156525825909, 0.00031464627156466, -2.7416000407196, -9.5055512871984e-05, 0.0001010826889664, 0.0038861276544925, -0.0039468156691918, -0.00065963125427106, -0.45713277701657, 1.4674086949264, 1.3177461396837, 5.0236559796675, -2.136692711014, -1.4178416673813, 1.6754096252194, -2.2413390689627, -2.9505484362051, -0.50723442340552, -4.0303573673226, 4.4375023591077, 1.8519341612871, -0.16604111237538, -3.240535709868, 0.12536197159805, 1.8077555564241, -2.3958406868549, 2.5054839010954, 1.0810804090481, 0.85102635120032, -3.0743472069048, 3.0379715408716, -3.0188182307626, -5.2869362972113, 2.3314465757709
 

